<?xml version="1.0"?>
<opencv_storage>
<cascade>
  <stageType>BOOST</stageType>
  <featureType>HAAR</featureType>
  <height>15</height>
  <width>30</width>
  <stageParams>
    <boostType>GAB</boostType>
    <minHitRate>9.9500000476837158e-01</minHitRate>
    <maxFalseAlarm>5.0000000000000000e-01</maxFalseAlarm>
    <weightTrimRate>9.4999998807907104e-01</weightTrimRate>
    <maxDepth>1</maxDepth>
    <maxWeakCount>100</maxWeakCount></stageParams>
  <featureParams>
    <maxCatCount>0</maxCatCount>
    <featSize>1</featSize>
    <mode>BASIC</mode></featureParams>
  <stageNum>8</stageNum>
  <stages>
    <!-- stage 0 -->
    <_>
      <maxWeakCount>3</maxWeakCount>
      <stageThreshold>-8.7303477525711060e-01</stageThreshold>
      <weakClassifiers>
        <_>
          <internalNodes>
            0 -1 20 1.0043674148619175e-02</internalNodes>
          <leafValues>
            -8.8118809461593628e-01 8.9898991584777832e-01</leafValues></_>
        <_>
          <internalNodes>
            0 -1 17 -3.9868310093879700e-02</internalNodes>
          <leafValues>
            8.5771811008453369e-01 -8.4392064809799194e-01</leafValues></_>
        <_>
          <internalNodes>
            0 -1 28 1.8255593255162239e-02</internalNodes>
          <leafValues>
            -7.8106045722961426e-01 8.5207402706146240e-01</leafValues></_></weakClassifiers></_>
    <!-- stage 1 -->
    <_>
      <maxWeakCount>3</maxWeakCount>
      <stageThreshold>-7.8561007976531982e-01</stageThreshold>
      <weakClassifiers>
        <_>
          <internalNodes>
            0 -1 2 3.0096668750047684e-02</internalNodes>
          <leafValues>
            -7.2602736949920654e-01 8.7845301628112793e-01</leafValues></_>
        <_>
          <internalNodes>
            0 -1 6 -7.0380613207817078e-02</internalNodes>
          <leafValues>
            7.5670832395553589e-01 -8.1400173902511597e-01</leafValues></_>
        <_>
          <internalNodes>
            0 -1 0 1.3384577631950378e-01</internalNodes>
          <leafValues>
            -7.7244520187377930e-01 7.5441908836364746e-01</leafValues></_></weakClassifiers></_>
    <!-- stage 2 -->
    <_>
      <maxWeakCount>3</maxWeakCount>
      <stageThreshold>-6.2101161479949951e-01</stageThreshold>
      <weakClassifiers>
        <_>
          <internalNodes>
            0 -1 27 5.0212185829877853e-02</internalNodes>
          <leafValues>
            -6.8888890743255615e-01 8.8571429252624512e-01</leafValues></_>
        <_>
          <internalNodes>
            0 -1 3 4.3434821069240570e-02</internalNodes>
          <leafValues>
            -5.6855559349060059e-01 9.0126353502273560e-01</leafValues></_>
        <_>
          <internalNodes>
            0 -1 12 7.4666902422904968e-02</internalNodes>
          <leafValues>
            -8.2848596572875977e-01 6.3643288612365723e-01</leafValues></_></weakClassifiers></_>
    <!-- stage 3 -->
    <_>
      <maxWeakCount>4</maxWeakCount>
      <stageThreshold>-4.6604463458061218e-01</stageThreshold>
      <weakClassifiers>
        <_>
          <internalNodes>
            0 -1 30 -4.8329181969165802e-02</internalNodes>
          <leafValues>
            8.3419686555862427e-01 -7.7777779102325439e-01</leafValues></_>
        <_>
          <internalNodes>
            0 -1 15 2.7573797851800919e-02</internalNodes>
          <leafValues>
            -7.9669368267059326e-01 7.8544771671295166e-01</leafValues></_>
        <_>
          <internalNodes>
            0 -1 10 7.5569197535514832e-02</internalNodes>
          <leafValues>
            -8.4698671102523804e-01 5.1337802410125732e-01</leafValues></_>
        <_>
          <internalNodes>
            0 -1 13 -1.0764162987470627e-02</internalNodes>
          <leafValues>
            5.9504884481430054e-01 -7.6311171054840088e-01</leafValues></_></weakClassifiers></_>
    <!-- stage 4 -->
    <_>
      <maxWeakCount>4</maxWeakCount>
      <stageThreshold>-1.7208083868026733e+00</stageThreshold>
      <weakClassifiers>
        <_>
          <internalNodes>
            0 -1 5 1.9568562507629395e-02</internalNodes>
          <leafValues>
            -8.0000001192092896e-01 7.2380954027175903e-01</leafValues></_>
        <_>
          <internalNodes>
            0 -1 24 -6.9719953462481499e-03</internalNodes>
          <leafValues>
            5.7490032911300659e-01 -8.2517415285110474e-01</leafValues></_>
        <_>
          <internalNodes>
            0 -1 4 -2.9073734767735004e-03</internalNodes>
          <leafValues>
            6.4464837312698364e-01 -7.2321838140487671e-01</leafValues></_>
        <_>
          <internalNodes>
            0 -1 19 2.3424517363309860e-02</internalNodes>
          <leafValues>
            -7.7249038219451904e-01 5.4810363054275513e-01</leafValues></_></weakClassifiers></_>
    <!-- stage 5 -->
    <_>
      <maxWeakCount>5</maxWeakCount>
      <stageThreshold>-1.0159770250320435e+00</stageThreshold>
      <weakClassifiers>
        <_>
          <internalNodes>
            0 -1 11 2.0600462332367897e-02</internalNodes>
          <leafValues>
            -6.6511625051498413e-01 7.7297300100326538e-01</leafValues></_>
        <_>
          <internalNodes>
            0 -1 16 8.1194695085287094e-03</internalNodes>
          <leafValues>
            -6.8786388635635376e-01 6.7744892835617065e-01</leafValues></_>
        <_>
          <internalNodes>
            0 -1 29 4.9126064404845238e-03</internalNodes>
          <leafValues>
            -7.6427280902862549e-01 5.4087299108505249e-01</leafValues></_>
        <_>
          <internalNodes>
            0 -1 22 -4.2971052229404449e-02</internalNodes>
          <leafValues>
            6.0519015789031982e-01 -7.5652652978897095e-01</leafValues></_>
        <_>
          <internalNodes>
            0 -1 7 3.0424338765442371e-03</internalNodes>
          <leafValues>
            -7.3039704561233521e-01 5.5265671014785767e-01</leafValues></_></weakClassifiers></_>
    <!-- stage 6 -->
    <_>
      <maxWeakCount>5</maxWeakCount>
      <stageThreshold>-9.0297251939773560e-01</stageThreshold>
      <weakClassifiers>
        <_>
          <internalNodes>
            0 -1 23 1.2215314432978630e-02</internalNodes>
          <leafValues>
            -6.5094339847564697e-01 7.3404252529144287e-01</leafValues></_>
        <_>
          <internalNodes>
            0 -1 31 -5.3363747894763947e-02</internalNodes>
          <leafValues>
            8.3749818801879883e-01 -4.6656790375709534e-01</leafValues></_>
        <_>
          <internalNodes>
            0 -1 25 1.1835729237645864e-03</internalNodes>
          <leafValues>
            -6.5716856718063354e-01 5.2220779657363892e-01</leafValues></_>
        <_>
          <internalNodes>
            0 -1 21 -1.2093399418517947e-03</internalNodes>
          <leafValues>
            4.5596498250961304e-01 -6.9035577774047852e-01</leafValues></_>
        <_>
          <internalNodes>
            0 -1 14 3.2928758300840855e-03</internalNodes>
          <leafValues>
            -7.6363396644592285e-01 3.8917735219001770e-01</leafValues></_></weakClassifiers></_>
    <!-- stage 7 -->
    <_>
      <maxWeakCount>5</maxWeakCount>
      <stageThreshold>-8.9381289482116699e-01</stageThreshold>
      <weakClassifiers>
        <_>
          <internalNodes>
            0 -1 1 4.1759382933378220e-02</internalNodes>
          <leafValues>
            -5.2459013462066650e-01 8.2051283121109009e-01</leafValues></_>
        <_>
          <internalNodes>
            0 -1 9 7.3424885049462318e-03</internalNodes>
          <leafValues>
            -7.5665444135665894e-01 4.7814613580703735e-01</leafValues></_>
        <_>
          <internalNodes>
            0 -1 18 1.1160619556903839e-02</internalNodes>
          <leafValues>
            -6.3995355367660522e-01 5.8456009626388550e-01</leafValues></_>
        <_>
          <internalNodes>
            0 -1 8 -7.6874345541000366e-02</internalNodes>
          <leafValues>
            4.9072921276092529e-01 -6.9626271724700928e-01</leafValues></_>
        <_>
          <internalNodes>
            0 -1 26 5.3424076177179813e-03</internalNodes>
          <leafValues>
            -6.9814455509185791e-01 6.9928586483001709e-01</leafValues></_></weakClassifiers></_></stages>
  <features>
    <_>
      <rects>
        <_>
          0 0 26 12 -1.</_>
        <_>
          0 4 26 4 3.</_></rects>
      <tilted>0</tilted></_>
    <_>
      <rects>
        <_>
          0 2 4 9 -1.</_>
        <_>
          2 2 2 9 2.</_></rects>
      <tilted>0</tilted></_>
    <_>
      <rects>
        <_>
          0 4 9 3 -1.</_>
        <_>
          3 4 3 3 3.</_></rects>
      <tilted>0</tilted></_>
    <_>
      <rects>
        <_>
          0 4 9 4 -1.</_>
        <_>
          3 4 3 4 3.</_></rects>
      <tilted>0</tilted></_>
    <_>
      <rects>
        <_>
          0 4 5 6 -1.</_>
        <_>
          0 7 5 3 2.</_></rects>
      <tilted>0</tilted></_>
    <_>
      <rects>
        <_>
          0 5 9 3 -1.</_>
        <_>
          3 5 3 3 3.</_></rects>
      <tilted>0</tilted></_>
    <_>
      <rects>
        <_>
          0 11 27 4 -1.</_>
        <_>
          0 13 27 2 2.</_></rects>
      <tilted>0</tilted></_>
    <_>
      <rects>
        <_>
          2 6 6 1 -1.</_>
        <_>
          4 6 2 1 3.</_></rects>
      <tilted>0</tilted></_>
    <_>
      <rects>
        <_>
          3 11 22 4 -1.</_>
        <_>
          3 13 22 2 2.</_></rects>
      <tilted>0</tilted></_>
    <_>
      <rects>
        <_>
          6 0 2 10 -1.</_>
        <_>
          6 5 2 5 2.</_></rects>
      <tilted>0</tilted></_>
    <_>
      <rects>
        <_>
          6 0 19 8 -1.</_>
        <_>
          6 4 19 4 2.</_></rects>
      <tilted>0</tilted></_>
    <_>
      <rects>
        <_>
          6 0 20 2 -1.</_>
        <_>
          6 1 20 1 2.</_></rects>
      <tilted>0</tilted></_>
    <_>
      <rects>
        <_>
          7 3 12 12 -1.</_>
        <_>
          7 7 12 4 3.</_></rects>
      <tilted>0</tilted></_>
    <_>
      <rects>
        <_>
          7 13 8 2 -1.</_>
        <_>
          7 14 8 1 2.</_></rects>
      <tilted>0</tilted></_>
    <_>
      <rects>
        <_>
          9 6 8 1 -1.</_>
        <_>
          13 6 4 1 2.</_></rects>
      <tilted>0</tilted></_>
    <_>
      <rects>
        <_>
          10 2 9 5 -1.</_>
        <_>
          13 2 3 5 3.</_></rects>
      <tilted>0</tilted></_>
    <_>
      <rects>
        <_>
          10 6 9 3 -1.</_>
        <_>
          10 7 9 1 3.</_></rects>
      <tilted>0</tilted></_>
    <_>
      <rects>
        <_>
          10 11 11 4 -1.</_>
        <_>
          10 13 11 2 2.</_></rects>
      <tilted>0</tilted></_>
    <_>
      <rects>
        <_>
          11 6 9 3 -1.</_>
        <_>
          11 7 9 1 3.</_></rects>
      <tilted>0</tilted></_>
    <_>
      <rects>
        <_>
          12 9 9 6 -1.</_>
        <_>
          12 11 9 2 3.</_></rects>
      <tilted>0</tilted></_>
    <_>
      <rects>
        <_>
          13 0 3 4 -1.</_>
        <_>
          13 2 3 2 2.</_></rects>
      <tilted>0</tilted></_>
    <_>
      <rects>
        <_>
          13 7 7 3 -1.</_>
        <_>
          13 8 7 1 3.</_></rects>
      <tilted>0</tilted></_>
    <_>
      <rects>
        <_>
          13 11 11 4 -1.</_>
        <_>
          13 13 11 2 2.</_></rects>
      <tilted>0</tilted></_>
    <_>
      <rects>
        <_>
          14 0 2 6 -1.</_>
        <_>
          14 2 2 2 3.</_></rects>
      <tilted>0</tilted></_>
    <_>
      <rects>
        <_>
          15 3 6 4 -1.</_>
        <_>
          17 3 2 4 3.</_></rects>
      <tilted>0</tilted></_>
    <_>
      <rects>
        <_>
          16 0 6 5 -1.</_>
        <_>
          19 0 3 5 2.</_></rects>
      <tilted>0</tilted></_>
    <_>
      <rects>
        <_>
          21 2 4 2 -1.</_>
        <_>
          23 2 2 2 2.</_></rects>
      <tilted>0</tilted></_>
    <_>
      <rects>
        <_>
          21 3 9 4 -1.</_>
        <_>
          24 3 3 4 3.</_></rects>
      <tilted>0</tilted></_>
    <_>
      <rects>
        <_>
          22 3 6 4 -1.</_>
        <_>
          24 3 2 4 3.</_></rects>
      <tilted>0</tilted></_>
    <_>
      <rects>
        <_>
          22 4 6 1 -1.</_>
        <_>
          24 4 2 1 3.</_></rects>
      <tilted>0</tilted></_>
    <_>
      <rects>
        <_>
          24 2 6 8 -1.</_>
        <_>
          27 2 3 8 2.</_></rects>
      <tilted>0</tilted></_>
    <_>
      <rects>
        <_>
          26 3 4 10 -1.</_>
        <_>
          28 3 2 10 2.</_></rects>
      <tilted>0</tilted></_></features></cascade>
</opencv_storage>
