<?xml version="1.0"?>
<opencv_storage>
<stage5>
  <maxWeakCount>5</maxWeakCount>
  <stageThreshold>-1.0159770250320435e+00</stageThreshold>
  <weakClassifiers>
    <_>
      <internalNodes>
        0 -1 36243 2.0600462332367897e-02</internalNodes>
      <leafValues>
        -6.6511625051498413e-01 7.7297300100326538e-01</leafValues></_>
    <_>
      <internalNodes>
        0 -1 58001 8.1194695085287094e-03</internalNodes>
      <leafValues>
        -6.8786388635635376e-01 6.7744892835617065e-01</leafValues></_>
    <_>
      <internalNodes>
        0 -1 92952 4.9126064404845238e-03</internalNodes>
      <leafValues>
        -7.6427280902862549e-01 5.4087299108505249e-01</leafValues></_>
    <_>
      <internalNodes>
        0 -1 70711 -4.2971052229404449e-02</internalNodes>
      <leafValues>
        6.0519015789031982e-01 -7.5652652978897095e-01</leafValues></_>
    <_>
      <internalNodes>
        0 -1 16665 3.0424338765442371e-03</internalNodes>
      <leafValues>
        -7.3039704561233521e-01 5.5265671014785767e-01</leafValues></_></weakClassifiers></stage5>
</opencv_storage>
