<?xml version="1.0"?>
<opencv_storage>
<stage7>
  <maxWeakCount>5</maxWeakCount>
  <stageThreshold>-8.9381289482116699e-01</stageThreshold>
  <weakClassifiers>
    <_>
      <internalNodes>
        0 -1 1699 4.1759382933378220e-02</internalNodes>
      <leafValues>
        -5.2459013462066650e-01 8.2051283121109009e-01</leafValues></_>
    <_>
      <internalNodes>
        0 -1 35701 7.3424885049462318e-03</internalNodes>
      <leafValues>
        -7.5665444135665894e-01 4.7814613580703735e-01</leafValues></_>
    <_>
      <internalNodes>
        0 -1 62131 1.1160619556903839e-02</internalNodes>
      <leafValues>
        -6.3995355367660522e-01 5.8456009626388550e-01</leafValues></_>
    <_>
      <internalNodes>
        0 -1 24415 -7.6874345541000366e-02</internalNodes>
      <leafValues>
        4.9072921276092529e-01 -6.9626271724700928e-01</leafValues></_>
    <_>
      <internalNodes>
        0 -1 90773 5.3424076177179813e-03</internalNodes>
      <leafValues>
        -6.9814455509185791e-01 6.9928586483001709e-01</leafValues></_></weakClassifiers></stage7>
</opencv_storage>
